{"learner":{"attributes":{},"feature_names":["event_distance","event_angle","distance_from_last","angle_from_last","seconds_since_last","speed_from_last","speed_of_angle_from_last","wrist","deflected","tip-in","slap","backhand","snap","wrap-around","poke","bat","cradle","between-legs","other-shot","prior_same","prior_shot-on-goal","prior_missed-shot","prior_blocked-shot","prior_giveaway","prior_takeaway","prior_hit","prior_faceoff","strength_3v3","strength_3v4","strength_3v5","strength_4v3","strength_4v4","strength_4v5","strength_4v6","strength_5v3","strength_5v4","strength_5v5","strength_5v6","strength_6v4","strength_6v5","empty_net","offwing","rush","rebound"],"feature_types":[],"gradient_booster":{"model":{"gbtree_model_param":{"num_parallel_tree":"1","num_trees":"17"},"iteration_indptr":[0,1,2,3,4,5,6,7,8,9,10,11,12,13,14,15,16,17],"tree_info":[0,0,0,0,0,0,0,0,0,0,0,0,0,0,0,0,0],"trees":[{"base_weights":[1.0049128E-2,7.3616284E-1,-4.5910358E-1,3.9420813E-1,3.9057058E-1,-2.8479615E-1,-6.6641456E-1,4.7486475E-1,1.0128417E-3,-4.309557E-2,-3.7230077E-1,-8.3843774E-1,-4.563311E-1,5.676742E-1,2.0167461E-1,1.3959236E-1,-3.4727395E-1,2.457226E-2,-4.258368E-1,-9.5823616E-1,-1.22937545E-1,-2.5060743E-1,-2.83011E-1,7.5277674E-1,2.4765454E-1,-4.769907E-2,1.4671117E-1,-2.2824949E-1,1.3749812E-2,-7.7974856E-1,-3.2611087E-1,-7.859878E-1,-4.7411844E-1,6.6752923E-3,-5.561473E-1,1.7465146E-1,2.6337487E-1,1.3101134E-1,-1.1065685E-2,-1.4047806E-1,-3.1632662E-1,2.2154028E-2,-1.4783953E-1,-1.7695494E-1,-3.3264157E-1,-1.3181493E-1,-1.9359966E-1],"categories":[],"categories_nodes":[],"categories_segments":[],"categories_sizes":[],"default_left":[1,1,0,0,0,0,1,0,0,0,0,0,1,0,0,0,1,0,0,0,0,0,0,0,0,0,0,0,0,0,0,0,0,0,0,0,0,0,0,0,0,0,0,0,0,0,0],"id":0,"left_children":[1,3,5,-1,7,9,11,13,-1,15,17,19,21,23,25,-1,27,-1,29,31,-1,-1,33,35,37,-1,-1,-1,-1,39,41,43,-1,-1,45,-1,-1,-1,-1,-1,-1,-1,-1,-1,-1,-1,-1],"loss_changes":[2.4421602E2,5.5680344E1,1.5548096E1,0E0,5.7917194E0,5.024805E0,6.7795258E0,3.5811996E0,0E0,1.0133546E1,4.28677E0,5.1412277E0,5.7689E0,6.225769E0,4.06933E0,0E0,6.6868706E0,0E0,5.2721024E0,7.703987E0,0E0,0E0,5.368776E0,9.4257355E-1,2.230072E0,0E0,0E0,0E0,0E0,2.3898258E0,8.295061E0,3.6115189E0,0E0,0E0,6.9927216E-2,0E0,0E0,0E0,0E0,0E0,0E0,0E0,0E0,0E0,0E0,0E0,0E0],"parents":[2147483647,0,0,1,1,2,2,4,4,5,5,6,6,7,7,9,9,10,10,11,11,12,12,13,13,14,14,16,16,18,18,19,19,22,22,23,23,24,24,29,29,30,30,31,31,34,34],"right_children":[2,4,6,-1,8,10,12,14,-1,16,18,20,22,24,26,-1,28,-1,30,32,-1,-1,34,36,38,-1,-1,-1,-1,40,42,44,-1,-1,46,-1,-1,-1,-1,-1,-1,-1,-1,-1,-1,-1,-1],"split_conditions":[5.818075E1,2.1023796E1,1.2657014E2,3.9420813E-1,2.7E1,5.1156624E1,6.720863E1,2.00001E0,1.0128417E-3,6E0,6.5E1,1.7075128E2,5E0,1.1E1,9E0,1.3959236E-1,1.3E1,2.457226E-2,6.61211E1,4.860041E1,-1.22937545E-1,-2.5060743E-1,1.4E1,2.00001E0,1.13216606E2,-4.769907E-2,1.4671117E-1,-2.2824949E-1,1.3749812E-2,6.0033325E1,7.7665955E1,1.5501291E2,-4.7411844E-1,6.6752923E-3,2.5E1,1.7465146E-1,2.6337487E-1,1.3101134E-1,-1.1065685E-2,-1.4047806E-1,-3.1632662E-1,2.2154028E-2,-1.4783953E-1,-1.7695494E-1,-3.3264157E-1,-1.3181493E-1,-1.9359966E-1],"split_indices":[0,0,0,0,4,2,2,7,0,4,0,0,4,4,4,0,4,0,2,2,0,0,4,19,2,0,0,0,0,2,2,0,0,0,4,0,0,0,0,0,0,0,0,0,0,0,0],"split_type":[0,0,0,0,0,0,0,0,0,0,0,0,0,0,0,0,0,0,0,0,0,0,0,0,0,0,0,0,0,0,0,0,0,0,0,0,0,0,0,0,0,0,0,0,0,0,0],"sum_hessian":[7.149024E2,2.8038217E2,4.3452023E2,1.03880875E2,1.765013E2,2.3733894E2,1.9718129E2,1.4475992E2,3.1741379E1,6.3482758E1,1.7385619E2,1.0676646E2,9.041483E1,1.0724738E2,3.751254E1,2.3565569E1,3.9917187E1,1.827534E1,1.5558084E2,8.247949E1,2.4286964E1,2.7172543E1,6.324229E1,6.708973E1,4.0157654E1,1.6832548E1,2.0679989E1,1.8996735E1,2.0920454E1,3.270324E1,1.2287761E2,6.636834E1,1.6111155E1,3.0298588E1,3.2943703E1,3.0779518E1,3.631021E1,2.3806034E1,1.635162E1,1.6592085E1,1.6111155E1,3.631021E1,8.65674E1,4.3043232E1,2.3325104E1,1.6832548E1,1.6111155E1],"tree_param":{"num_deleted":"0","num_feature":"44","num_nodes":"47","size_leaf_vector":"1"}},{"base_weights":[-1.1960792E-2,5.4312515E-1,-3.5726735E-1,1.0167905E0,2.9364434E-1,-2.9367635E-2,-4.2680737E-1,3.423373E-1,7.5667197E-1,2.5212952E-1,2.3044977E-1,1.3106196E-1,-1.9167474E-1,-3.9110056E-1,-3.0487874E-1,1.5116177E-1,2.8973463E-1,3.6856455E-1,-1.20238855E-1,7.8084275E-2,-4.2174324E-1,-4.5996923E-2,-4.3816882E-1,6.1691105E-1,2.0084585E-1,-1.8611887E-1,-7.596042E-2,-1.1620679E-1,6.0716692E-2,-3.7110528E-1,-7.0558286E-1,1.1124592E-1,2.6346552E-1,1.4962326E-1,5.817163E-3,-3.80503E-2,-1.2754378E-1,-3.3282262E-1,-1.5331961E-1],"categories":[],"categories_nodes":[],"categories_segments":[],"categories_sizes":[],"default_left":[0,0,0,0,0,0,0,0,0,0,0,0,0,0,0,0,0,0,0,0,0,0,0,0,0,0,0,0,0,0,0,0,0,0,0,0,0,0,0],"id":1,"left_children":[1,3,5,7,9,11,13,-1,15,-1,17,-1,19,21,-1,-1,-1,23,-1,-1,25,27,29,31,33,-1,-1,-1,-1,35,37,-1,-1,-1,-1,-1,-1,-1,-1],"loss_changes":[1.3797462E2,3.232482E1,1.0106018E1,2.2036972E0,6.103245E0,6.0406184E0,7.3067093E0,0E0,1.2916107E0,0E0,1.4509814E1,0E0,6.253544E0,5.6123314E0,0E0,0E0,0E0,5.5275173E0,0E0,0E0,1.1666255E0,3.7018175E0,5.2083244E0,3.1604118E0,4.448247E0,0E0,0E0,0E0,0E0,3.1930504E0,4.149851E0,0E0,0E0,0E0,0E0,0E0,0E0,0E0,0E0],"parents":[2147483647,0,0,1,1,2,2,3,3,4,4,5,5,6,6,8,8,10,10,12,12,13,13,17,17,20,20,21,21,22,22,23,23,24,24,29,29,30,30],"right_children":[2,4,6,8,10,12,14,-1,16,-1,18,-1,20,22,-1,-1,-1,24,-1,-1,26,28,30,32,34,-1,-1,-1,-1,36,38,-1,-1,-1,-1,-1,-1,-1,-1],"split_conditions":[5.9211487E1,2.1023796E1,7.971198E1,2.00001E0,2.00001E0,5.1156624E1,2.1095957E1,3.423373E-1,1.15918076E2,2.5212952E-1,2.00001E0,1.3106196E-1,8.3908856E-1,2.00001E0,-3.0487874E-1,1.5116177E-1,2.8973463E-1,9E0,-1.20238855E-1,7.8084275E-2,6.896376E1,1.6544968E0,4.3457155E0,2.00001E0,4.9569944E-1,-1.8611887E-1,-7.596042E-2,-1.1620679E-1,6.0716692E-2,6E0,6.1351448E1,1.1124592E-1,2.6346552E-1,1.4962326E-1,5.817163E-3,-3.80503E-2,-1.2754378E-1,-3.3282262E-1,-1.5331961E-1],"split_indices":[0,0,0,7,12,2,6,0,2,0,7,0,6,23,0,0,0,4,0,0,0,6,6,19,6,0,0,0,0,4,2,0,0,0,0,0,0,0,0],"split_type":[0,0,0,0,0,0,0,0,0,0,0,0,0,0,0,0,0,0,0,0,0,0,0,0,0,0,0,0,0,0,0,0,0,0,0,0,0,0,0],"sum_hessian":[7.178245E2,2.750708E2,4.4275372E2,9.383659E1,1.8123422E2,7.771747E1,3.6503625E2,6.119778E1,3.2638817E1,1.7501802E1,1.6373242E2,1.9631807E1,5.8085663E1,3.4575528E2,1.9280962E1,1.6319408E1,1.6319408E1,1.3468079E2,2.9051632E1,1.9549849E1,3.8535812E1,4.1734676E1,3.0402063E2,5.3211113E1,8.146967E1,1.6457323E1,2.207849E1,1.7341963E1,2.4392712E1,2.4497276E2,5.9047848E1,2.864923E1,2.4561886E1,3.017775E1,5.129192E1,4.4984383E1,1.9998839E2,1.7667025E1,4.138082E1],"tree_param":{"num_deleted":"0","num_feature":"44","num_nodes":"39","size_leaf_vector":"1"}},{"base_weights":[5.059111E-3,6.831429E-2,-8.4251195E-1,1.0428629E-1,-1.9138023E-1,-1.5331362E-1,-3.9583758E-1,-7.458606E-3,2.692741E-1,4.1285458E-1,-7.3254704E-2,3.33779E-1,-9.1707535E-2,5.2354444E-2,1.7419566E-1,-1.0646767E-1,1.1688224E-1,2.659178E-1,6.8070585E-1,-1.6310346E-1,-2.1742733E-2,1.0288621E-1,2.7709227E-2,1.4556748E-1,2.4398936E-1],"categories":[],"categories_nodes":[],"categories_segments":[],"categories_sizes":[],"default_left":[1,0,0,0,0,0,0,0,0,0,0,0,0,0,0,0,0,0,0,0,0,0,0,0,0],"id":2,"left_children":[1,3,5,7,-1,-1,-1,9,11,13,15,17,-1,-1,-1,19,-1,21,23,-1,-1,-1,-1,-1,-1],"loss_changes":[3.7611534E1,1.6649498E1,7.028038E0,1.1468878E1,0E0,0E0,0E0,1.0312016E1,9.4177E0,1.9172297E0,4.99643E0,5.1471653E0,0E0,0E0,0E0,4.441675E0,0E0,2.5210752E0,5.484581E-1,0E0,0E0,0E0,0E0,0E0,0E0],"parents":[2147483647,0,0,1,1,2,2,3,3,7,7,8,8,9,9,10,10,11,11,15,15,17,17,18,18],"right_children":[2,4,6,8,-1,-1,-1,10,12,14,16,18,-1,-1,-1,20,-1,22,24,-1,-1,-1,-1,-1,-1],"split_conditions":[4.976364E1,5.6666668E1,6.5376434E1,8.309633E1,-1.9138023E-1,-1.5331362E-1,-3.9583758E-1,2.00001E0,3.8E1,7.256732E0,4.2E1,2.3E1,-9.1707535E-2,5.2354444E-2,1.7419566E-1,2.00001E0,1.1688224E-1,1.2E1,1.1871394E2,-1.6310346E-1,-2.1742733E-2,1.0288621E-1,2.7709227E-2,1.4556748E-1,2.4398936E-1],"split_indices":[1,5,1,2,0,0,0,23,4,5,4,4,0,0,0,33,0,4,2,0,0,0,0,0,0],"split_type":[0,0,0,0,0,0,0,0,0,0,0,0,0,0,0,0,0,0,0,0,0,0,0,0,0],"sum_hessian":[6.9946063E2,6.5174E2,4.7720684E1,6.209642E2,3.0775806E1,2.9376324E1,1.8344358E1,3.7078754E2,2.5017662E2,4.947306E1,3.2131448E2,2.2531789E2,2.4858742E1,2.1282885E1,2.8190178E1,3.0052042E2,2.0794052E1,1.8993234E2,3.538554E1,2.059746E1,2.7992294E2,1.3086743E2,5.9064907E1,1.6184383E1,1.9201157E1],"tree_param":{"num_deleted":"0","num_feature":"44","num_nodes":"25","size_leaf_vector":"1"}},{"base_weights":[-1.2164806E-2,4.6031755E-1,-2.9627958E-1,6.7625E-1,-6.2529266E-1,-2.527557E-1,-7.318188E-1,9.6378946E-1,3.7094775E-1,-1.0196633E-1,-2.6439908E-1,-3.8921648E-1,-1.4664432E-1,-8.2944125E-2,-3.1565836E-1,1.0769573E0,1.6541919E-1,4.6638474E-1,-2.6367432E-3,4.4937655E-2,-4.470601E-1,9.4159886E-2,-2.9592434E-1,3.4454164E-1,2.1666479E-1,3.4468183E-1,2.3330705E-1,-5.4163843E-1,-1.8395765E-1,3.256913E-1,-1.6786365E-1,-2.1078369E-1,-1.7159343E-1,1.5254408E-1,3.2577768E-2,-1.1734883E-1,-2.3023267E-1,4.288195E-2,-1.1780948E-1,-1.1384603E-2,1.9203684E-1,-1.4030895E-1,1.8644543E-2,-8.6485125E-2,7.531015E-2],"categories":[],"categories_nodes":[],"categories_segments":[],"categories_sizes":[],"default_left":[1,1,0,1,0,0,0,1,1,0,0,0,0,0,0,1,0,0,0,0,1,0,0,0,0,0,0,0,0,0,0,0,1,0,0,0,0,0,0,0,0,0,0,0,0],"id":3,"left_children":[1,3,5,7,9,11,13,15,17,-1,-1,19,21,-1,-1,23,-1,25,-1,-1,27,29,31,-1,-1,33,-1,35,37,39,41,-1,43,-1,-1,-1,-1,-1,-1,-1,-1,-1,-1,-1,-1],"loss_changes":[9.357373E1,6.178665E1,8.066368E0,1.8852066E1,2.9119644E0,5.695299E0,5.401087E0,4.636093E0,3.9093637E0,0E0,0E0,5.4662457E0,8.119135E0,0E0,0E0,1.3747406E0,0E0,2.9952831E0,0E0,0E0,3.7982254E0,5.326396E0,6.917468E0,0E0,0E0,2.4089365E0,0E0,3.5973778E0,2.985804E0,5.337966E0,2.8858728E0,0E0,5.3948193E0,0E0,0E0,0E0,0E0,0E0,0E0,0E0,0E0,0E0,0E0,0E0,0E0],"parents":[2147483647,0,0,1,1,2,2,3,3,4,4,5,5,6,6,7,7,8,8,11,11,12,12,15,15,17,17,20,20,21,21,22,22,25,25,27,27,28,28,29,29,30,30,32,32],"right_children":[2,4,6,8,10,12,14,16,18,-1,-1,20,22,-1,-1,24,-1,26,-1,-1,28,30,32,-1,-1,34,-1,36,38,40,42,-1,44,-1,-1,-1,-1,-1,-1,-1,-1,-1,-1,-1,-1],"split_conditions":[5.9211487E1,5.3972626E1,3.3003788E1,3.1827662E1,2.7658634E1,4.4655156E0,1.4796762E1,3.1390268E1,3.5311214E1,-1.0196633E-1,-2.6439908E-1,7E0,1.7670088E0,-8.2944125E-2,-3.1565836E-1,3.5854223E0,1.6541919E-1,1.9465866E1,-2.6367432E-3,4.4937655E-2,2.6916555E1,1.1842076E1,2.00001E0,3.4454164E-1,2.1666479E-1,8.435038E-1,2.3330705E-1,1.4204576E2,3.808877E1,4.4247847E0,5.710593E0,-2.1078369E-1,8.855017E0,1.5254408E-1,3.2577768E-2,-1.1734883E-1,-2.3023267E-1,4.288195E-2,-1.1780948E-1,-1.1384603E-2,1.9203684E-1,-1.4030895E-1,1.8644543E-2,-8.6485125E-2,7.531015E-2],"split_indices":[0,1,5,0,0,5,3,1,3,0,0,4,6,0,0,6,0,3,0,0,3,1,26,0,0,6,0,0,3,1,3,0,6,0,0,0,0,0,0,0,0,0,0,0,0],"split_type":[0,0,0,0,0,0,0,0,0,0,0,0,0,0,0,0,0,0,0,0,0,0,0,0,0,0,0,0,0,0,0,0,0,0,0,0,0,0,0,0,0,0,0,0,0],"sum_hessian":[6.95051E2,2.607703E2,4.3428073E2,2.1782172E2,4.294858E1,3.9626218E2,3.8018555E1,1.11063324E2,1.067584E2,2.1410172E1,2.153841E1,1.7217482E2,2.2408736E2,1.6471376E1,2.154718E1,8.588378E1,2.517954E1,8.513401E1,2.1624392E1,1.6532179E1,1.5564264E2,8.589653E1,1.3819083E2,6.96126E1,1.6271183E1,6.2720882E1,2.2413126E1,1.13708725E2,4.1933918E1,4.5472633E1,4.0423893E1,3.1266512E1,1.0692431E2,3.6348545E1,2.6372337E1,6.987579E1,4.3832928E1,1.6464684E1,2.5469233E1,2.149406E1,2.3978573E1,1.709991E1,2.3323984E1,8.403856E1,2.2885752E1],"tree_param":{"num_deleted":"0","num_feature":"44","num_nodes":"45","size_leaf_vector":"1"}},{"base_weights":[5.3314757E-2,7.896835E-1,-3.0639874E-2,3.0248117E-1,3.7044387E-2,-5.55871E-1,2.3849819E-2,-3.603872E-1,-2.7853748E-1,1.4493993E-1,-1.9700779E-1,7.0378E-4,-1.8622111E-1,1.9547051E-1,-1.7075147E-1,-4.5665422E-1,-1.3371517E-1,5.560198E-1,7.015682E-2,-5.4458514E-2,-2.1594784E-1,2.1328495E-1,-2.2636375E-1,2.3346451E-1,1.02443E-1,4.2079516E-2,-9.263835E-2,-1.0392449E-1,2.1962069E-1,-2.0782469E-1,-4.2249776E-2],"categories":[],"categories_nodes":[],"categories_segments":[],"categories_sizes":[],"default_left":[1,1,0,0,0,1,0,0,0,1,0,0,0,0,0,0,0,1,0,0,0,0,0,0,0,0,0,0,0,0,0],"id":4,"left_children":[1,3,5,-1,-1,7,9,11,-1,13,15,-1,-1,17,-1,19,21,23,25,-1,-1,27,29,-1,-1,-1,-1,-1,-1,-1,-1],"loss_changes":[4.186033E1,9.966537E0,1.7426285E1,0E0,0E0,3.8336678E0,1.4796391E1,3.7005672E0,0E0,1.3001756E1,3.159418E0,0E0,0E0,1.5068342E1,0E0,2.620273E0,5.159159E0,3.8384876E0,6.665887E0,0E0,0E0,1.0130616E1,4.9269753E0,0E0,0E0,0E0,0E0,0E0,0E0,0E0,0E0],"parents":[2147483647,0,0,1,1,2,2,5,5,6,6,7,7,9,9,10,10,13,13,15,15,16,16,17,17,18,18,21,21,22,22],"right_children":[2,4,6,-1,-1,8,10,12,-1,14,16,-1,-1,18,-1,20,22,24,26,-1,-1,28,30,-1,-1,-1,-1,-1,-1,-1,-1],"split_conditions":[2.022375E1,4.258049E1,2.00001E0,3.0248117E-1,3.7044387E-2,3.175948E1,1.2506398E2,8.273451E1,-2.7853748E-1,5.3972626E1,4E0,7.0378E-4,-1.8622111E-1,4.8373547E1,-1.7075147E-1,1.5208221E2,2.6400757E1,2.5906507E1,3.017352E1,-5.4458514E-2,-2.1594784E-1,1.6129032E0,3.8078865E1,2.3346451E-1,1.02443E-1,4.2079516E-2,-9.263835E-2,-1.0392449E-1,2.1962069E-1,-2.0782469E-1,-4.2249776E-2],"split_indices":[0,1,11,0,0,1,0,0,0,1,4,0,0,0,0,0,2,1,1,0,0,5,2,0,0,0,0,0,0,0,0],"split_type":[0,0,0,0,0,0,0,0,0,0,0,0,0,0,0,0,0,0,0,0,0,0,0,0,0,0,0,0,0,0,0],"sum_hessian":[6.7572394E2,6.829553E1,6.074284E2,5.1036526E1,1.725901E1,5.6229145E1,5.511992E2,3.8169937E1,1.8059206E1,3.5623126E2,1.9496799E2,1.6363054E1,2.1806885E1,3.3336838E2,2.2862892E1,3.6993587E1,1.579744E2,8.509583E1,2.4827254E2,1.891216E1,1.8081429E1,3.3016056E1,1.2495834E2,4.05118E1,4.458403E1,2.1004317E2,3.8229366E1,1.6041565E1,1.6974491E1,1.826475E1,1.06693596E2],"tree_param":{"num_deleted":"0","num_feature":"44","num_nodes":"31","size_leaf_vector":"1"}},{"base_weights":[2.5342679E-2,2.9082024E-1,-1.5191483E-1,5.970267E-1,4.0973347E-2,-1.1139628E-1,-5.1013744E-1,9.1896915E-1,3.7478846E-1,-1.511004E-1,1.9987911E-1,-4.5316372E-2,-3.027676E-1,-2.2741562E-1,-6.469635E-2,3.1076276E-1,2.2753562E-1,5.2310205E-1,4.1304074E-2,3.6319554E-2,-1.7062531E-1,3.6808094E-1,-2.396368E-2,3.123208E-1,-9.819875E-2,-1.5758246E-3,-5.2116656E-1,7.271048E-2,2.0568766E-1,-5.4668747E-2,6.395483E-2,5.5426702E-2,1.5463161E-1,1.3930266E-1,4.098159E-2,5.808792E-2,-1.8352525E-1,-6.536783E-2,6.0914446E-2,-2.3352261E-1,-6.531592E-2,-6.6959724E-2,8.350756E-2,-1.2340178E-1,-1.5768975E-2],"categories":[],"categories_nodes":[],"categories_segments":[],"categories_sizes":[],"default_left":[1,1,0,1,0,0,1,1,0,0,1,0,0,0,0,0,0,0,0,0,0,0,0,0,0,0,0,0,0,0,0,0,0,0,0,0,0,0,0,0,0,0,0,0,0],"id":5,"left_children":[1,3,5,7,9,11,13,15,17,19,21,23,25,-1,-1,-1,-1,27,-1,29,-1,31,-1,33,35,37,39,-1,-1,-1,-1,-1,-1,-1,-1,41,43,-1,-1,-1,-1,-1,-1,-1,-1],"loss_changes":[3.1265255E1,2.0323687E1,5.7270985E0,8.200806E0,4.5333285E0,4.529598E0,2.7723742E0,1.1671066E-1,2.4721527E0,5.293931E0,3.848984E0,5.103738E0,6.0534973E0,0E0,0E0,0E0,0E0,1.8481989E0,0E0,1.8725789E0,0E0,1.2790194E0,0E0,8.659737E-1,3.1370513E0,1.8010508E0,3.9949331E0,0E0,0E0,0E0,0E0,0E0,0E0,0E0,0E0,5.2390704E0,4.509987E0,0E0,0E0,0E0,0E0,0E0,0E0,0E0,0E0],"parents":[2147483647,0,0,1,1,2,2,3,3,4,4,5,5,6,6,7,7,8,8,9,9,10,10,11,11,12,12,17,17,19,19,21,21,23,23,24,24,25,25,26,26,35,35,36,36],"right_children":[2,4,6,8,10,12,14,16,18,20,22,24,26,-1,-1,-1,-1,28,-1,30,-1,32,-1,34,36,38,40,-1,-1,-1,-1,-1,-1,-1,-1,42,44,-1,-1,-1,-1,-1,-1,-1,-1],"split_conditions":[7.0178345E1,2.6906094E1,1.3480727E2,2.7018513E1,1.2942624E1,1.8946505E1,7.206057E0,1.1309933E1,8.635392E1,8.560889E0,3.711686E1,2.00001E0,1.9025606E1,-2.2741562E-1,-6.469635E-2,3.1076276E-1,2.2753562E-1,5E1,4.1304074E-2,4.003026E1,-1.7062531E-1,3.865981E1,-2.396368E-2,1.2844453E2,1.24197426E2,6.6730804E1,8.009994E1,7.271048E-2,2.0568766E-1,-5.4668747E-2,6.395483E-2,5.5426702E-2,1.5463161E-1,1.3930266E-1,4.098159E-2,2.00001E0,1.4350261E2,-6.536783E-2,6.0914446E-2,-2.3352261E-1,-6.531592E-2,-6.6959724E-2,8.350756E-2,-1.2340178E-1,-1.5768975E-2],"split_indices":[0,1,2,0,3,1,1,3,2,3,3,23,3,0,0,0,0,0,0,1,0,1,0,0,0,2,2,0,0,0,0,0,0,0,0,19,0,0,0,0,0,0,0,0,0],"split_type":[0,0,0,0,0,0,0,0,0,0,0,0,0,0,0,0,0,0,0,0,0,0,0,0,0,0,0,0,0,0,0,0,0,0,0,0,0,0,0,0,0,0,0,0,0],"sum_hessian":[6.624609E2,2.6497247E2,3.9748843E2,1.1843355E2,1.4653893E2,3.5827493E2,3.92135E1,4.7086807E1,7.134674E1,6.636765E1,8.017128E1,2.67236E2,9.103894E1,2.0435452E1,1.8778051E1,2.4089075E1,2.299773E1,4.314988E1,2.8196861E1,4.6440567E1,1.9927082E1,4.9871063E1,3.0300213E1,3.3792873E1,2.334431E2,3.868965E1,5.234929E1,1.6734655E1,2.6415224E1,2.0758762E1,2.5681807E1,2.3227684E1,2.6643381E1,1.723732E1,1.6555555E1,8.2553955E1,1.5088916E2,1.877594E1,1.9913713E1,2.748452E1,2.486477E1,3.6249638E1,4.6304314E1,5.4296745E1,9.659241E1],"tree_param":{"num_deleted":"0","num_feature":"44","num_nodes":"45","size_leaf_vector":"1"}},{"base_weights":[-4.37172E-3,6.2149525E-1,-5.4655686E-2,2.5309458E-1,6.558011E-2,8.158366E-2,-1.4611955E-1,1.7629336E-1,-4.3723792E-1,-3.8640362E-1,-8.89677E-2,4.1521672E-2,3.7693945E-1,-6.325831E-2,-2.0981343E-1,-1.1737334E-1,-2.1494013E-1,8.723345E-3,-2.8295785E-1,3.6303914E-1,-9.217507E-2,2.0035928E-1,2.7571604E-1,5.115096E-2,-1.0039036E-1,-1.2242258E-1,1.8767913E-1,-1.5898256E-1,-2.3222591E-1,5.481215E-3,1.8933575E-1,2.093909E-2,-1.4017765E-1,1.4888047E-1,4.1635297E-2,-1.1199636E-1,9.88427E-3,-3.60609E-2,9.015279E-2,3.436934E-2,-1.191156E-1],"categories":[],"categories_nodes":[],"categories_segments":[],"categories_sizes":[],"default_left":[1,0,0,0,0,1,0,1,0,0,0,0,0,0,0,0,0,0,0,0,0,0,0,0,0,1,0,1,0,0,0,0,0,0,0,0,0,0,0,0,0],"id":6,"left_children":[1,3,5,-1,-1,7,9,11,13,15,17,19,21,-1,-1,23,-1,25,27,29,31,-1,33,-1,-1,35,37,39,-1,-1,-1,-1,-1,-1,-1,-1,-1,-1,-1,-1,-1],"loss_changes":[2.0513422E1,4.1543026E0,7.529181E0,0E0,0E0,1.2015557E1,4.9272804E0,5.559427E0,2.0952454E0,6.053977E0,5.5585213E0,5.3831816E0,2.2516851E0,0E0,0E0,2.5137591E0,0E0,4.62193E0,5.85748E0,3.3855171E0,5.421327E0,0E0,1.8357949E0,0E0,0E0,4.4441395E0,2.9286847E0,5.234762E0,0E0,0E0,0E0,0E0,0E0,0E0,0E0,0E0,0E0,0E0,0E0,0E0,0E0],"parents":[2147483647,0,0,1,1,2,2,5,5,6,6,7,7,8,8,9,9,10,10,11,11,12,12,15,15,17,17,18,18,19,19,20,20,22,22,25,25,26,26,27,27],"right_children":[2,4,6,-1,-1,8,10,12,14,16,18,20,22,-1,-1,24,-1,26,28,30,32,-1,34,-1,-1,36,38,40,-1,-1,-1,-1,-1,-1,-1,-1,-1,-1,-1,-1,-1],"split_conditions":[1.8384777E1,5.3972626E1,7.971198E1,2.5309458E-1,6.558011E-2,4.976364E1,9.400532E1,8.854838E0,1.1130616E1,1.9823273E0,1.0917875E1,4.1231056E1,7.15891E1,-6.325831E-2,-2.0981343E-1,1.8946505E1,-2.1494013E-1,4.18785E0,1.680119E2,3.9623226E1,5.0387387E0,2.0035928E-1,1.4620874E0,5.115096E-2,-1.0039036E-1,5.4835906E0,3.8470768E1,7.8640246E0,-2.3222591E-1,5.481215E-3,1.8933575E-1,2.093909E-2,-1.4017765E-1,1.4888047E-1,4.1635297E-2,-1.1199636E-1,9.88427E-3,-3.60609E-2,9.015279E-2,3.436934E-2,-1.191156E-1],"split_indices":[0,1,0,0,0,1,0,5,5,6,5,0,2,0,0,1,0,5,0,2,5,0,6,0,0,1,2,1,0,0,0,0,0,0,0,0,0,0,0,0,0],"split_type":[0,0,0,0,0,0,0,0,0,0,0,0,0,0,0,0,0,0,0,0,0,0,0,0,0,0,0,0,0,0,0,0,0,0,0,0,0,0,0,0,0],"sum_hessian":[6.49739E2,4.7474964E1,6.0226404E2,2.9896364E1,1.75786E1,2.4196092E2,3.603031E2,2.0516814E2,3.6792774E1,6.812472E1,2.921784E2,1.23453064E2,8.171507E1,2.0711386E1,1.6081388E1,3.8279346E1,2.984537E1,1.94956E2,9.7222404E1,3.5754444E1,8.769862E1,1.9647766E1,6.206731E1,1.6556622E1,2.1722725E1,1.1268895E2,8.2267044E1,7.868397E1,1.853844E1,1.6107412E1,1.964703E1,6.1817818E1,2.5880808E1,2.276927E1,3.929804E1,4.2559387E1,7.012956E1,2.2045544E1,6.0221497E1,3.685525E1,4.1828716E1],"tree_param":{"num_deleted":"0","num_feature":"44","num_nodes":"41","size_leaf_vector":"1"}},{"base_weights":[5.934481E-3,3.7807631E-1,-5.0623853E-2,8.354056E-3,4.698524E-1,-4.098914E-1,-1.4155664E-2,3.3307183E-1,2.4381764E-1,-5.5891685E-2,-2.2017021E-1,-2.317627E-1,3.1317215E-2,1.7396244E-1,4.4987753E-2,1.2679183E-2,-4.7861177E-1,8.5927196E-2,-1.8190803E-1,-8.397717E-2,1.2305464E-1,-5.1953502E-2,-2.6690322E-1,2.0118977E-1,1.6297158E-2,-7.028497E-4,-4.0002578E-1,8.192659E-2,-8.0839895E-2,-7.6646158E-3,1.3708635E-1,-5.7852976E-2,9.082612E-2,-1.9753018E-1,-3.5303436E-2],"categories":[],"categories_nodes":[],"categories_segments":[],"categories_sizes":[],"default_left":[1,0,0,0,0,0,1,0,0,0,0,1,0,0,0,1,0,0,0,0,0,0,0,0,0,0,0,0,0,0,0,0,0,0,0],"id":7,"left_children":[1,3,5,-1,7,9,11,13,-1,-1,-1,15,17,-1,-1,19,21,23,25,-1,-1,-1,-1,27,29,31,33,-1,-1,-1,-1,-1,-1,-1,-1],"loss_changes":[1.3441573E1,2.6949863E0,7.2586775E0,0E0,2.8571901E0,3.5622225E0,4.998436E0,2.1442223E0,0E0,0E0,0E0,5.2740254E0,4.8840685E0,0E0,0E0,5.330206E0,5.302972E0,2.673548E0,3.3817394E0,0E0,0E0,0E0,0E0,4.3210845E0,3.8657882E0,2.8419821E0,2.7554202E0,0E0,0E0,0E0,0E0,0E0,0E0,0E0,0E0],"parents":[2147483647,0,0,1,1,2,2,4,4,5,5,6,6,7,7,11,11,12,12,15,15,16,16,17,17,18,18,23,23,24,24,25,25,26,26],"right_children":[2,4,6,-1,8,10,12,14,-1,-1,-1,16,18,-1,-1,20,22,24,26,-1,-1,-1,-1,28,30,32,34,-1,-1,-1,-1,-1,-1,-1,-1],"split_conditions":[3.0594116E1,2.00001E0,2.00001E0,8.354056E-3,2.4698177E1,2.239301E0,3.069933E-1,1.2165525E1,2.4381764E-1,-5.5891685E-2,-2.2017021E-1,2.4263358E0,1.1400439E2,1.7396244E-1,4.4987753E-2,1.380354E0,1.1887809E2,8.477028E1,2.0869349E1,-8.397717E-2,1.2305464E-1,-5.1953502E-2,-2.6690322E-1,6.3946507E1,6.3946507E1,1.0539184E1,4.380651E1,8.192659E-2,-8.0839895E-2,-7.6646158E-3,1.3708635E-1,-5.7852976E-2,9.082612E-2,-1.9753018E-1,-3.5303436E-2],"split_indices":[0,21,11,0,0,6,6,0,0,0,0,3,2,0,0,3,0,0,3,0,0,0,0,3,3,3,3,0,0,0,0,0,0,0,0],"split_type":[0,0,0,0,0,0,0,0,0,0,0,0,0,0,0,0,0,0,0,0,0,0,0,0,0,0,0,0,0,0,0,0,0,0,0],"sum_hessian":[6.3671423E2,8.325161E1,5.5346265E2,1.755663E1,6.569498E1,5.005956E1,5.0340308E2,4.837029E1,1.732469E1,3.0551914E1,1.9507647E1,8.6304184E1,4.170989E2,1.9679325E1,2.8690962E1,4.3840164E1,4.2464016E1,3.3253024E2,8.456865E1,2.5422432E1,1.8417732E1,2.5177622E1,1.7286396E1,1.245184E2,2.0801184E2,4.674098E1,3.782767E1,1.08381485E2,1.6136915E1,1.90832E2,1.7179844E1,2.8842934E1,1.7898045E1,1.9055677E1,1.8771994E1],"tree_param":{"num_deleted":"0","num_feature":"44","num_nodes":"35","size_leaf_vector":"1"}},{"base_weights":[5.193232E-2,6.545376E-2,-1.333292E-1,8.570746E-2,-1.0433149E-1,5.1289905E-2,2.975198E-1,-1.2989026E-1,7.939412E-2,2.7181298E-2,2.5556764E-1,1.7502107E-1,1.818516E-1,-7.1609735E-2,9.5959194E-2,7.7583686E-2,-1.25881E-1,1.621646E-1,9.291529E-3,-3.438103E-2,3.7357616E-1,3.729127E-2,-6.20172E-2,-1.6957015E-1,-4.8957816E-3,7.831639E-2,1.4126898E-1],"categories":[],"categories_nodes":[],"categories_segments":[],"categories_sizes":[],"default_left":[1,1,0,1,0,1,0,0,1,1,0,0,0,0,0,1,0,0,0,0,0,0,0,0,0,0,0],"id":8,"left_children":[1,3,-1,5,7,9,11,-1,13,15,17,-1,19,-1,-1,21,23,-1,-1,-1,25,-1,-1,-1,-1,-1,-1],"loss_changes":[4.304598E0,2.144481E0,0E0,4.033493E0,4.0578294E0,2.3518507E0,2.4540591E0,0E0,3.410389E0,3.3233707E0,3.2117047E0,0E0,3.2582924E0,0E0,0E0,4.325887E0,5.1308484E0,0E0,0E0,0E0,2.5584888E-1,0E0,0E0,0E0,0E0,0E0,0E0],"parents":[2147483647,0,0,1,1,3,3,4,4,5,5,6,6,8,8,9,9,10,10,12,12,15,15,16,16,20,20],"right_children":[2,4,-1,6,8,10,12,-1,14,16,18,-1,20,-1,-1,22,24,-1,-1,-1,26,-1,-1,-1,-1,-1,-1],"split_conditions":[6.5376434E1,5.5527786E1,-1.333292E-1,3.4077194E1,6.789055E1,3.7568592E1,3.808877E1,-1.2989026E-1,6.9062486E0,1.8584938E1,4.633222E1,1.7502107E-1,4.380651E1,-7.1609735E-2,9.5959194E-2,2.5906507E1,2.0646992E1,1.621646E-1,9.291529E-3,-3.438103E-2,4.3457155E0,3.729127E-2,-6.20172E-2,-1.6957015E-1,-4.8957816E-3,7.831639E-2,1.4126898E-1],"split_indices":[1,3,0,3,3,1,3,0,6,3,1,0,3,0,0,1,3,0,0,0,6,0,0,0,0,0,0],"split_type":[0,0,0,0,0,0,0,0,0,0,0,0,0,0,0,0,0,0,0,0,0,0,0,0,0,0,0],"sum_hessian":[6.3603827E2,6.200165E2,1.6021757E1,5.543797E2,6.563681E1,4.7795804E2,7.642164E1,2.3049969E1,4.258684E1,4.2851794E2,4.9440098E1,2.0848654E1,5.5572983E1,1.833745E1,2.4249392E1,3.227362E2,1.05781746E2,2.1170683E1,2.8269415E1,2.198336E1,3.3589622E1,2.776693E2,4.506687E1,2.0283592E1,8.549815E1,1.7286015E1,1.630361E1],"tree_param":{"num_deleted":"0","num_feature":"44","num_nodes":"27","size_leaf_vector":"1"}},{"base_weights":[-2.4737822E-2,3.946357E-1,-5.4755468E-2,2.4801965E-1,1.1828655E-2,-9.519395E-3,-3.3197334E-1,1.3894212E-1,-7.5467564E-2,-2.3185602E-1,-2.1052466E-1,2.1160416E-1,-1.20246045E-1,-1.66205E-1,-4.8190888E-2,-8.241539E-2,-1.4573841E-1,1.315276E-1,2.1673355E-1,-3.4227526E-1,-1.4983578E-2,-9.011467E-2,8.3465025E-2,-7.674225E-2,7.3624596E-2,-1.4737521E-1,-5.2032683E-2,9.1759615E-2,-1.2616942E-2],"categories":[],"categories_nodes":[],"categories_segments":[],"categories_sizes":[],"default_left":[1,1,1,0,0,0,0,0,1,0,0,0,0,0,0,0,0,0,0,1,0,0,0,0,0,0,0,0,0],"id":9,"left_children":[1,3,5,-1,-1,7,9,11,13,-1,15,17,-1,-1,19,21,-1,23,-1,25,27,-1,-1,-1,-1,-1,-1,-1,-1],"loss_changes":[7.7849193E0,6.3085246E0,7.2247725E0,0E0,0E0,4.872089E0,4.165222E0,6.088683E0,4.4697323E0,0E0,2.2432168E0,5.4507732E0,0E0,0E0,3.1881628E0,3.6513193E0,0E0,5.286767E0,0E0,7.481003E-1,2.5740912E0,0E0,0E0,0E0,0E0,0E0,0E0,0E0,0E0],"parents":[2147483647,0,0,1,1,2,2,5,5,6,6,7,7,8,8,10,10,11,11,14,14,15,15,17,17,19,19,20,20],"right_children":[2,4,6,-1,-1,8,10,12,14,-1,16,18,-1,-1,20,22,-1,24,-1,26,28,-1,-1,-1,-1,-1,-1,-1,-1],"split_conditions":[1.8384777E1,2.1801409E1,3.5217594E1,2.4801965E-1,1.1828655E-2,7.971198E1,2.00001E0,3.4E1,2E0,-2.3185602E-1,4.588028E1,7.517979E1,-1.20246045E-1,-1.66205E-1,8.7E1,3.939543E1,-1.4573841E-1,2.00001E0,2.1673355E-1,1.9290047E1,1.5264338E1,-9.011467E-2,8.3465025E-2,-7.674225E-2,7.3624596E-2,-1.4737521E-1,-5.2032683E-2,9.1759615E-2,-1.2616942E-2],"split_indices":[0,1,1,0,0,0,11,4,4,0,0,0,0,0,0,0,0,26,0,1,2,0,0,0,0,0,0,0,0],"split_type":[0,0,0,0,0,0,0,0,0,0,0,0,0,0,0,0,0,0,0,0,0,0,0,0,0,0,0,0,0],"sum_hessian":[6.156934E2,4.031465E1,5.753787E2,1.758981E1,2.2724844E1,4.9554987E2,7.982887E1,1.5208087E2,3.43469E2,1.6082602E1,6.3746273E1,1.3457283E2,1.750804E1,1.7480232E1,3.2598877E2,4.438781E1,1.9358465E1,1.1742364E2,1.7149197E1,3.21308E1,2.9385797E2,2.7770391E1,1.6617416E1,2.639782E1,9.102582E1,1.6054707E1,1.607609E1,2.2064705E1,2.7179327E2],"tree_param":{"num_deleted":"0","num_feature":"44","num_nodes":"29","size_leaf_vector":"1"}},{"base_weights":[-1.6123263E-2,-4.3410644E-2,3.6058718E-1,-1.9370891E-2,-1.729365E-1,2.0213474E-1,2.3689222E-2,3.640918E-1,-7.664934E-2,2.3574911E-1,1.6786422E-1,-1.8264903E-1,8.3876185E-2,-7.044583E-3,1.4853796E-1,8.54396E-2,-2.2271933E-1,3.7039506E-1,1.3570239E-2,-5.4568812E-2,-2.1035244E-1,1.7530128E-1,5.5941474E-2,2.769083E-2,-7.7580206E-2],"categories":[],"categories_nodes":[],"categories_segments":[],"categories_sizes":[],"default_left":[1,1,0,1,0,0,0,1,1,0,0,0,0,0,0,0,0,0,0,0,0,0,0,0,0],"id":10,"left_children":[1,3,5,7,-1,-1,-1,9,11,-1,13,15,17,-1,-1,-1,19,21,23,-1,-1,-1,-1,-1,-1],"loss_changes":[6.400285E0,7.4217114E0,3.6565366E0,1.2241114E1,0E0,0E0,0E0,5.8628244E0,8.261341E0,0E0,3.1869729E0,5.5364256E0,3.8912425E0,0E0,0E0,0E0,5.139969E0,1.3891387E0,3.3742228E0,0E0,0E0,0E0,0E0,0E0,0E0],"parents":[2147483647,0,0,1,1,2,2,3,3,7,7,8,8,10,10,11,11,12,12,16,16,17,17,18,18],"right_children":[2,4,6,8,-1,-1,-1,10,12,-1,14,16,18,-1,-1,-1,20,22,24,-1,-1,-1,-1,-1,-1],"split_conditions":[4.2E1,6.1189205E1,7.15891E1,3.544009E1,-1.729365E-1,2.0213474E-1,2.3689222E-2,1.1309933E1,8.854838E0,2.3574911E-1,1.3E1,2.00001E0,5.946863E0,-7.044583E-3,1.4853796E-1,8.54396E-2,8.134716E0,1.4214869E1,1.4843181E2,-5.4568812E-2,-2.1035244E-1,1.7530128E-1,5.5941474E-2,2.769083E-2,-7.7580206E-2],"split_indices":[4,1,2,0,0,0,0,1,5,0,4,12,3,0,0,0,5,5,0,0,0,0,0,0,0],"split_type":[0,0,0,0,0,0,0,0,0,0,0,0,0,0,0,0,0,0,0,0,0,0,0,0,0],"sum_hessian":[6.201069E2,5.790478E2,4.1059116E1,5.550519E2,2.3995928E1,1.8780582E1,2.2278534E1,7.1438065E1,4.836138E2,2.1730185E1,4.970788E1,2.9119284E2,1.9242096E2,3.1953384E1,1.7754496E1,2.2508472E1,2.6868436E2,3.7072105E1,1.5534885E2,2.4883331E2,1.9851055E1,1.6131104E1,2.0941004E1,1.2100568E2,3.4343178E1],"tree_param":{"num_deleted":"0","num_feature":"44","num_nodes":"25","size_leaf_vector":"1"}},{"base_weights":[4.4723183E-2,1.7415693E-1,2.3233054E-2,-1.9077705E-1,4.92619E-2,-4.360904E-1,4.3228805E-2,6.30316E-2,-1.0887375E-1,-5.500633E-2,-2.043009E-1,3.1244466E-1,3.2245558E-2,4.098584E-1,2.5694596E-2,1.5152809E-2,1.3294649E-1,1.6810009E-1,5.3827945E-2,1.1939042E-2,-8.8852465E-2],"categories":[],"categories_nodes":[],"categories_segments":[],"categories_sizes":[],"default_left":[1,0,0,1,0,0,0,0,0,0,0,0,0,0,0,0,0,0,0,0,0],"id":11,"left_children":[1,-1,3,5,7,9,-1,11,-1,-1,-1,13,15,17,-1,19,-1,-1,-1,-1,-1],"loss_changes":[7.167313E0,0E0,3.3551655E0,5.4300346E0,3.0666218E0,2.2247033E0,0E0,3.9812508E0,0E0,0E0,0E0,1.2241426E0,3.2508996E0,1.2728229E0,0E0,3.436148E0,0E0,0E0,0E0,0E0,0E0],"parents":[2147483647,0,0,2,2,3,3,4,4,5,5,7,7,11,11,12,12,13,13,15,15],"right_children":[2,-1,4,6,8,10,-1,12,-1,-1,-1,14,16,18,-1,20,-1,-1,-1,-1,-1],"split_conditions":[4.5113856E-1,1.7415693E-1,2.00001E0,2.1801409E1,6.5376434E1,1.5892831E1,4.3228805E-2,3.313608E1,-1.0887375E-1,-5.500633E-2,-2.043009E-1,2.00001E0,1.812181E2,1.3201087E1,2.5694596E-2,1.680119E2,1.3294649E-1,1.6810009E-1,5.3827945E-2,1.1939042E-2,-8.8852465E-2],"split_indices":[1,0,25,3,1,1,0,0,0,0,0,7,0,3,0,0,0,0,0,0,0],"split_type":[0,0,0,0,0,0,0,0,0,0,0,0,0,0,0,0,0,0,0,0,0],"sum_hessian":[6.2263617E2,2.300687E1,5.9962933E2,6.433503E1,5.352943E2,3.6958553E1,2.7376476E1,5.1880927E2,1.6485022E1,1.9049349E1,1.7909204E1,5.5997414E1,4.6281186E2,3.86075E1,1.7389914E1,4.453244E2,1.7487446E1,2.248973E1,1.6117767E1,4.1346744E2,3.185698E1],"tree_param":{"num_deleted":"0","num_feature":"44","num_nodes":"21","size_leaf_vector":"1"}},{"base_weights":[-1.7517783E-2,1.353402E-1,-4.465323E-2,-6.833261E-3,-2.7131414E-1,-2.3878029E-2,1.3726279E-1,-1.9389758E-1,-1.709241E-1,-4.333088E-2,1.1752241E-1,5.8359846E-2,-2.8975397E-1,-2.8726935E-1,-1.0144756E-2,-1.4848012E-1,-8.291236E-3,-2.9338488E-2,-1.9519895E-1,-1.0336862E-1,7.003236E-3],"categories":[],"categories_nodes":[],"categories_segments":[],"categories_sizes":[],"default_left":[1,0,0,0,1,1,0,0,0,1,0,0,0,1,0,0,0,0,0,0,0],"id":12,"left_children":[1,-1,3,5,7,9,-1,-1,11,13,-1,-1,15,17,19,-1,-1,-1,-1,-1,-1],"loss_changes":[7.824324E0,0E0,4.978652E0,3.9601574E0,3.0163426E0,3.9157906E0,0E0,0E0,2.9606106E0,3.7336545E0,0E0,0E0,2.7220726E0,3.739645E0,4.569854E0,0E0,0E0,0E0,0E0,0E0,0E0],"parents":[2147483647,0,0,2,2,3,3,4,4,5,5,8,8,9,9,12,12,13,13,14,14],"right_children":[2,-1,4,6,8,10,-1,-1,12,14,-1,-1,16,18,20,-1,-1,-1,-1,-1,-1],"split_conditions":[1.8384777E1,1.353402E-1,4.8814075E1,1.8220044E2,2.8265915E0,4.7E1,1.3726279E-1,-1.9389758E-1,5.6142673E0,1.689326E0,1.1752241E-1,5.8359846E-2,7.156505E1,1.3743685E0,2.00001E0,-1.4848012E-1,-8.291236E-3,-2.9338488E-2,-1.9519895E-1,-1.0336862E-1,7.003236E-3],"split_indices":[0,0,3,0,5,4,0,0,5,5,0,0,3,5,11,0,0,0,0,0,0],"split_type":[0,0,0,0,0,0,0,0,0,0,0,0,0,0,0,0,0,0,0,0,0],"sum_hessian":[6.126773E2,3.267788E1,5.7999945E2,4.9794412E2,8.2055336E1,4.812293E2,1.6714788E1,1.6179184E1,6.587615E1,4.605684E2,2.0660925E1,1.600777E1,4.986838E1,5.423697E1,4.0633142E2,2.7474026E1,2.2394356E1,3.64835E1,1.775347E1,3.6141033E1,3.701904E2],"tree_param":{"num_deleted":"0","num_feature":"44","num_nodes":"21","size_leaf_vector":"1"}},{"base_weights":[1.2475704E-2,-2.0768584E-1,4.5874678E-2,-3.327564E-2,-2.0649117E-1,-1.7666003E-1,7.5776346E-2,-6.3906394E-2,9.841845E-2,8.794929E-2,-4.576829E-1,1.04536965E-1,-1.2797795E-1,-5.1252905E-2,1.0808599E-1,-2.5821197E-1,1.97856E-2,6.7756884E-2,1.9799E-1,-1.1406655E-1,2.8815972E-2,9.1247946E-2,-8.680621E-2,5.0125096E-2,-2.7370637E-2,-9.737525E-2,3.4500096E-2],"categories":[],"categories_nodes":[],"categories_segments":[],"categories_sizes":[],"default_left":[1,1,0,0,0,1,0,0,1,0,1,0,0,0,0,0,0,0,0,0,0,1,0,0,0,0,0],"id":13,"left_children":[1,3,5,7,-1,9,11,-1,13,-1,15,17,19,-1,-1,-1,-1,21,-1,-1,23,25,-1,-1,-1,-1,-1],"loss_changes":[4.4908733E0,6.721368E0,3.5400066E0,1.4432619E0,0E0,8.462502E0,2.7553706E0,0E0,2.5549378E0,0E0,8.468753E0,8.34296E0,2.3178053E0,0E0,0E0,0E0,0E0,3.2661726E0,0E0,0E0,6.2772894E-1,3.6238654E0,0E0,0E0,0E0,0E0,0E0],"parents":[2147483647,0,0,1,1,2,2,3,3,5,5,6,6,8,8,10,10,11,11,12,12,17,17,20,20,21,21],"right_children":[2,4,6,8,-1,10,12,-1,14,-1,16,18,20,-1,-1,-1,-1,22,-1,-1,24,26,-1,-1,-1,-1,-1],"split_conditions":[1.6501789E0,1.3333334E0,2.00001E0,1.1622168E1,-2.0649117E-1,1.017678E0,2.9948103E1,-6.3906394E-2,7.646229E-1,8.794929E-2,1.658734E1,2.3401388E1,4.0034706E1,-5.1252905E-2,1.0808599E-1,-2.5821197E-1,1.97856E-2,1.9151127E1,1.9799E-1,-1.1406655E-1,2.00001E0,1.1457628E0,-8.680621E-2,5.0125096E-2,-2.7370637E-2,-9.737525E-2,3.4500096E-2],"split_indices":[5,5,20,1,0,6,5,0,5,0,1,5,5,0,0,0,0,5,0,0,19,1,0,0,0,0,0],"split_type":[0,0,0,0,0,0,0,0,0,0,0,0,0,0,0,0,0,0,0,0,0,0,0,0,0,0,0],"sum_hessian":[6.084441E2,7.945685E1,5.2898724E2,5.9084915E1,2.0371933E1,6.207839E1,4.6690884E2,2.4723263E1,3.4361652E1,2.321818E1,3.886021E1,4.095819E2,5.7326946E1,1.711305E1,1.7248602E1,2.1595322E1,1.7264887E1,3.851965E2,2.4385395E1,2.1428555E1,3.589839E1,3.621204E2,2.307611E1,1.6501375E1,1.9397015E1,1.8882341E1,3.4323807E2],"tree_param":{"num_deleted":"0","num_feature":"44","num_nodes":"27","size_leaf_vector":"1"}},{"base_weights":[-1.220768E-2,-1.4657986E-1,7.4231825E-3,1.1187486E-1,-9.429998E-3,7.750802E-3,-2.6267427E-1,2.2859013E-1,-1.0682538E-2,-1.5119633E-1,-8.6824475E-3,-2.5069593E-2,1.3731112E-1,-3.8829178E-1,2.920685E-2,-1.9694383E-1,-5.3177574E-3,7.929682E-2,1.7414523E-3],"categories":[],"categories_nodes":[],"categories_segments":[],"categories_sizes":[],"default_left":[1,0,0,0,1,0,1,0,0,0,0,0,0,0,0,0,0,0,0],"id":14,"left_children":[1,-1,3,-1,5,7,9,11,13,-1,-1,-1,-1,15,17,-1,-1,-1,-1],"loss_changes":[5.6828904E0,0E0,3.60221E0,0E0,2.4361844E0,2.1391325E0,1.9917874E0,2.933412E0,7.3227324E0,0E0,0E0,0E0,0E0,4.6043167E0,2.4191706E0,0E0,0E0,0E0,0E0],"parents":[2147483647,0,0,2,2,4,4,5,5,6,6,7,7,8,8,13,13,14,14],"right_children":[2,-1,4,-1,6,8,10,12,14,-1,-1,-1,-1,16,18,-1,-1,-1,-1],"split_conditions":[7.9572356E-1,-1.4657986E-1,1.6492422E1,1.1187486E-1,4.976364E1,2.4263358E0,1.4440225E0,1.5343415E0,3.069933E-1,-1.5119633E-1,-8.6824475E-3,-2.5069593E-2,1.3731112E-1,5.8424892E0,2.00001E0,-1.9694383E-1,-5.3177574E-3,7.929682E-2,1.7414523E-3],"split_indices":[3,0,0,0,1,3,6,3,6,0,0,0,0,3,24,0,0,0,0],"split_type":[0,0,0,0,0,0,0,0,0,0,0,0,0,0,0,0,0,0,0],"sum_hessian":[6.062791E2,2.3048973E1,5.832301E2,2.477655E1,5.5845355E2,5.238814E2,3.4572186E1,3.9481014E1,4.844004E2,1.6441343E1,1.8130842E1,1.6980806E1,2.2500208E1,4.5446934E1,4.3895346E2,2.5917933E1,1.9529E1,3.880378E1,4.0014966E2],"tree_param":{"num_deleted":"0","num_feature":"44","num_nodes":"19","size_leaf_vector":"1"}},{"base_weights":[8.1129605E-3,4.817008E-2,-1.1591733E-1,1.9993164E-1,9.057692E-3,1.1934814E-2,-3.367946E-1,1.1157612E-1,1.7072883E-1,-1.5908861E-1,4.856903E-2,-1.4223611E-1,1.5589844E-1,-3.1975664E-2,-1.8769404E-1,-1.00745656E-1,2.9192808E-1,1.8473813E-2,-3.1742516E-1,-1.8205795E-1,8.794606E-2,-3.147118E-1,5.4185383E-2,3.675575E-2,-1.0011206E-1,1.5257102E-1,-1.5593122E-3,-1.5977186E-1,-8.252534E-3,-1.4855781E-1,7.13185E-2,2.3952341E-1,-2.5824035E-2,-1.9636317E-1,-1.4145185E-2,5.8742672E-2,-3.188397E-2,2.3220219E-2,1.2660937E-1,-9.8253414E-2,2.0355036E-2],"categories":[],"categories_nodes":[],"categories_segments":[],"categories_sizes":[],"default_left":[0,0,1,0,0,0,0,0,0,0,0,0,0,0,0,0,1,0,0,0,0,0,0,0,0,0,0,0,0,0,0,0,0,0,0,0,0,0,0,0,0],"id":15,"left_children":[1,3,5,7,9,11,13,15,-1,17,19,21,-1,-1,-1,23,25,-1,27,29,31,33,35,-1,-1,-1,-1,-1,-1,-1,-1,37,39,-1,-1,-1,-1,-1,-1,-1,-1],"loss_changes":[2.9944613E0,2.7015467E0,4.159598E0,2.9789817E0,2.4204416E0,7.445216E0,3.5230718E0,2.9590766E0,0E0,2.4420185E0,2.6934485E0,2.4908419E0,0E0,0E0,0E0,1.9072142E0,2.68202E0,0E0,2.5134115E0,5.812489E0,4.3606024E0,3.517717E0,8.1606054E-1,0E0,0E0,0E0,0E0,0E0,0E0,0E0,0E0,3.173575E0,4.124009E0,0E0,0E0,0E0,0E0,0E0,0E0,0E0,0E0],"parents":[2147483647,0,0,1,1,2,2,3,3,4,4,5,5,6,6,7,7,9,9,10,10,11,11,15,15,16,16,18,18,19,19,20,20,21,21,22,22,31,31,32,32],"right_children":[2,4,6,8,10,12,14,16,-1,18,20,22,-1,-1,-1,24,26,-1,28,30,32,34,36,-1,-1,-1,-1,-1,-1,-1,-1,38,40,-1,-1,-1,-1,-1,-1,-1,-1],"split_conditions":[1.1168259E2,5.3009434E1,1.9212671E1,4.6615448E1,5.166949E0,1.1793429E1,1.1E1,3.88973E1,1.7072883E-1,2.5553865E1,2.00001E0,1.2557468E2,1.5589844E-1,-3.1975664E-2,-1.8769404E-1,2.9427877E1,3.0191624E1,1.8473813E-2,6.61211E1,6.2369865E1,5.6568542E1,5.0572486E0,5.710593E0,3.675575E-2,-1.0011206E-1,1.5257102E-1,-1.5593122E-3,-1.5977186E-1,-8.252534E-3,-1.4855781E-1,7.13185E-2,1.7583483E1,6.7911705E1,-1.9636317E-1,-1.4145185E-2,5.8742672E-2,-3.188397E-2,2.3220219E-2,1.2660937E-1,-9.8253414E-2,2.0355036E-2],"split_indices":[2,0,3,0,3,3,4,2,0,2,20,0,0,0,0,0,3,0,2,2,2,3,3,0,0,0,0,0,0,0,0,3,2,0,0,0,0,0,0,0,0],"split_type":[0,0,0,0,0,0,0,0,0,0,0,0,0,0,0,0,0,0,0,0,0,0,0,0,0,0,0,0,0,0,0,0,0,0,0,0,0,0,0,0,0],"sum_hessian":[6.005901E2,4.5443597E2,1.461541E2,9.227689E1,3.621591E2,9.316983E1,5.2984264E1,7.5507286E1,1.6769613E1,6.8332726E1,2.9382635E2,7.202065E1,2.1149178E1,3.0247025E1,2.2737242E1,3.488263E1,4.0624653E1,2.8802622E1,3.9530106E1,4.2322803E1,2.5150356E2,3.8027164E1,3.3993492E1,1.8054081E1,1.682855E1,2.3082777E1,1.7541876E1,2.2210596E1,1.7319508E1,2.4137835E1,1.818497E1,1.0736048E2,1.4414307E2,1.6114124E1,2.1913038E1,1.7939861E1,1.6053629E1,5.760963E1,4.975085E1,3.3560787E1,1.1058228E2],"tree_param":{"num_deleted":"0","num_feature":"44","num_nodes":"41","size_leaf_vector":"1"}},{"base_weights":[-4.0464353E-2,-1.5051326E-1,-1.1051789E-2,-5.1915895E-2,-1.6966425E-1,2.2933269E-1,-3.3228386E-2,1.5892084E-1,-1.4968483E-1,-3.6299247E-2,1.3959245E-1,-2.617136E-1,-7.7541946E-3,-1.6522184E-2,1.0971212E-1,2.201198E-2,-2.6625955E-1,-1.1632322E-1,-3.2904174E-2,9.899166E-3,-1.179789E-1,-1.24300994E-1,-2.4610009E-2,2.5114855E-1,-2.3291282E-2,-1.0761903E-2,2.0138647E-1,-1.6031938E-2,7.240972E-2],"categories":[],"categories_nodes":[],"categories_segments":[],"categories_sizes":[],"default_left":[0,0,1,1,0,1,0,0,0,0,0,0,0,0,0,0,0,0,0,0,0,0,0,0,0,0,0,0,0],"id":16,"left_children":[1,3,5,7,-1,9,11,13,15,-1,-1,17,19,-1,-1,-1,21,-1,-1,23,-1,-1,-1,25,27,-1,-1,-1,-1],"loss_changes":[1.9551154E0,5.1847587E0,2.5564299E0,2.1688063E0,0E0,3.4052143E0,2.5508857E0,1.500437E0,1.8815507E0,0E0,0E0,7.998862E-1,2.6964574E0,0E0,0E0,0E0,1.2548497E0,0E0,0E0,3.0429318E0,0E0,0E0,0E0,5.5659223E0,2.6805909E0,0E0,0E0,0E0,0E0],"parents":[2147483647,0,0,1,1,2,2,3,3,5,5,6,6,7,7,8,8,11,11,12,12,16,16,19,19,23,23,24,24],"right_children":[2,4,6,8,-1,10,12,14,16,-1,-1,18,20,-1,-1,-1,22,-1,-1,24,-1,-1,-1,26,28,-1,-1,-1,-1],"split_conditions":[5.247139E0,4.184916E0,6.5819445E0,2.6602933E0,-1.6966425E-1,3.8676107E0,2.00001E0,9.502105E1,5.9211487E1,-3.6299247E-2,1.3959245E-1,6.351378E1,5.8463665E1,-1.6522184E-2,1.0971212E-1,2.201198E-2,8.508819E0,-1.1632322E-1,-3.2904174E-2,2.00001E0,-1.179789E-1,-1.24300994E-1,-2.4610009E-2,5.562256E0,2.00001E0,-1.0761903E-2,2.0138647E-1,-1.6031938E-2,7.240972E-2],"split_indices":[3,3,3,5,0,5,11,0,0,0,0,0,5,0,0,0,5,0,0,23,0,0,0,6,37,0,0,0,0],"split_type":[0,0,0,0,0,0,0,0,0,0,0,0,0,0,0,0,0,0,0,0,0,0,0,0,0,0,0,0,0],"sum_hessian":[6.035374E2,1.26418304E2,4.771191E2,1.0306E2,2.3358301E1,3.9509747E1,4.3760934E2,3.245214E1,7.0607864E1,1.6097933E1,2.3411812E1,4.2965546E1,3.946438E2,1.6308643E1,1.6143497E1,2.4362467E1,4.6245396E1,2.2644007E1,2.0321537E1,3.782951E2,1.6348707E1,2.4945595E1,2.1299799E1,4.49564E1,3.333387E2,2.7252956E1,1.7703445E1,2.9996603E2,3.337267E1],"tree_param":{"num_deleted":"0","num_feature":"44","num_nodes":"29","size_leaf_vector":"1"}}]},"name":"gbtree"},"learner_model_param":{"base_score":"5.976474E-1","boost_from_average":"1","num_class":"0","num_feature":"44","num_target":"1"},"objective":{"name":"binary:logistic","reg_loss_param":{"scale_pos_weight":"1"}}},"version":[2,1,4]}